3 100
TREATS -0.478690 0.859289 0.590707 0.518876 -0.468430 0.094145 -0.377967 -0.202753 0.047875 0.449562 -0.765343 0.114851 -1.628764 -0.977772 0.111420 -0.325841 -0.181756 -0.744434 0.401300 0.490730 -0.514069 -0.239376 1.246297 0.448757 0.115676 0.634657 -0.431855 0.871649 -0.202297 0.234499 0.496582 0.061046 -0.086621 0.085455 0.849026 -0.159400 0.497243 -0.701182 -0.425452 -0.097902 -0.225854 -0.185235 -0.332067 0.097369 -1.437268 0.618871 0.473546 -0.099669 -0.951677 -0.038248 0.118519 -0.587434 -0.635876 0.129803 0.197711 -0.397976 -0.204726 -0.797715 -0.512151 0.737334 0.233170 -0.070357 0.117264 0.335646 -0.181730 -1.194339 0.417441 -0.423349 -0.398136 -1.198525 0.340102 0.368708 -0.097668 0.464857 -0.478176 0.088031 -0.536678 0.398670 -0.795889 -0.112398 0.098633 0.920746 0.648927 0.481489 -0.128471 0.892312 0.461987 -0.275830 0.069474 0.030244 0.155820 -0.444456 -0.018689 -0.721449 0.266518 -0.343982 -0.014499 0.094111 0.126426 -0.630272 
ISA -1.219097 -0.944146 1.019082 -0.510633 -0.030014 -1.354001 0.734024 -0.948145 0.788305 -0.024965 -0.711138 0.226537 -0.808981 0.230025 0.039347 -0.626870 0.352394 -1.296950 -0.262556 -0.196897 -0.340130 0.918322 1.384349 -0.345376 -0.316044 -0.723555 0.147737 0.291046 1.004678 -0.224592 0.781957 0.288401 0.029078 0.522837 1.460526 0.151527 0.451789 -1.949125 0.153578 0.320312 1.191523 -0.080196 -0.266036 0.347640 -0.655679 -0.096753 -0.659394 0.271352 -0.690016 1.647116 0.520807 -0.586502 -0.295381 -0.143805 -0.479798 0.643723 0.242797 0.207776 -0.469091 0.318612 -0.605308 -0.165787 -1.282205 -0.863234 -0.597712 0.556459 -0.206395 -0.480505 0.408361 -1.055857 -0.486469 -1.329410 -0.952724 -0.841720 0.221878 0.250380 -1.317502 0.785354 -0.992200 -0.495751 -0.334463 0.636125 0.743946 0.666838 0.103923 0.838757 -0.682091 -1.143136 0.375833 0.598071 -0.586828 -0.462354 1.306276 -0.161519 1.029021 -0.845825 0.650358 1.054551 -0.832242 0.984698 
AFFECTS -0.347612 0.240547 0.528886 -0.197971 -0.508777 0.131123 -0.261632 0.198399 0.480882 0.532574 -0.268185 -0.146313 0.452856 0.364419 0.879025 -0.161498 -0.432488 -0.568208 0.015560 0.041397 -0.344178 0.677043 0.306035 -0.113401 0.041677 0.412257 0.022651 -0.166224 0.259060 0.319385 0.333976 -0.188410 -0.555162 0.477173 0.537064 -0.432552 0.327373 -0.042071 -0.373401 -0.592419 -0.259570 0.447309 -0.385181 0.413272 -0.273380 -0.327405 0.093578 -0.620343 -0.010995 0.299718 0.314482 -0.427264 -0.415787 -0.440152 0.506249 0.280772 0.264447 -0.536123 0.179666 0.171559 -0.528598 -0.222468 0.097766 0.759842 -0.380884 -0.119889 0.384265 -0.071728 -0.969220 -0.142798 0.109643 -0.140085 -0.047473 0.604008 0.348113 0.120563 -1.023692 -0.022866 0.224146 -0.330529 0.497080 0.535021 0.112987 0.071121 -0.685879 0.785455 0.873214 -0.558891 -0.355115 -0.021352 0.254605 -0.131070 -0.176732 -0.062147 0.264323 0.251492 0.289085 0.165905 -0.303700 -0.275295 
